SNNS network definition file V1.4-3D
generated at Thu May 09 10:11:49 1996

network name : v27-23+8
source files :
no. of units : 59
no. of connections : 314
no. of unit types : 0
no. of site types : 0


learning function : Std_Backpropagation
update function : Topological_Order


unit default section :

act      | bias     | st | subnet | layer | act func     | out func
---------|----------|----|--------|-------|--------------|-------------
 0.00000 |  0.00000 | h  |      0 |     1 | Act_Logistic | Out_Identity
---------|----------|----|--------|-------|--------------|-------------


unit definition section :

no. | typeName | unitName | act      | bias     | st | position | act func | out func | sites
----|----------|----------|----------|----------|----|----------|----------|----------|-------
  1 |          |           |        0 |        0 | i  |  2, 1, 0 |||
  2 |          |           |        0 |        0 | i  |  2, 3, 0 |||
  3 |          |           | -0.24402 |        0 | i  |  2, 4, 0 |||
  4 |          |           |   3.1942 |        0 | i  |  2, 5, 0 |||
  5 |          |           |  -1.3411 |        0 | i  |  2, 6, 0 |||
  6 |          |           |  -10.847 |        0 | i  |  2, 7, 0 |||
  7 |          |           |  -4.1081 |        0 | i  |  2, 8, 0 |||
  8 |          |           |   3.1931 |        0 | i  |  2, 9, 0 |||
  9 |          |           |  -4.7338 |        0 | i  |  2,10, 0 |||
 10 |          |           | -0.72579 |        0 | i  |  2,11, 0 |||
 11 |          |           |   7.0601 |        0 | i  |  2,12, 0 |||
 12 |          |           |        0 |        0 | i  |  2,14, 0 |||
 13 |          |           |  -7.7035 |        0 | i  |  2,15, 0 |||
 14 |          |           |   8.3891 |        0 | i  |  2,16, 0 |||
 15 |          |           |   7.8294 |        0 | i  |  2,17, 0 |||
 16 |          |           |   8.5472 |        0 | i  |  2,18, 0 |||
 17 |          |           |   14.183 |        0 | i  |  2,19, 0 |||
 18 |          |           | -0.063934 |        0 | i  |  2,20, 0 |||
 19 |          |           |  -4.9692 |        0 | i  |  2,22, 0 |||
 20 |          |           |   6.0223 |        0 | i  |  2,23, 0 |||
 21 |          |           |        0 |        0 | i  |  2,24, 0 |||
 22 |          |           |        0 |        0 | i  |  2,26, 0 |||
 23 |          |           |        0 |        0 | i  |  2,27, 0 |||
 24 |          |           |        0 |        0 | i  |  2,28, 0 |||
 25 |          |           |        0 |        0 | i  |  2,29, 0 |||
 26 |          |           |  -1.0683 |        0 | i  |  2,30, 0 |||
 27 |          |           |  -4.5064 |        0 | i  |  2,31, 0 |||
 28 |          |           |  0.22438 |   2.0389 | h  |  7, 3, 0 |||
 29 |          |           |  0.39353 | -0.60471 | h  |  7, 4, 0 |||
 30 |          |           |  0.27444 |  -1.3373 | h  |  7, 5, 0 |||
 31 |          |           |  0.99966 |  -1.5018 | h  |  8, 6, 0 |||
 32 |          |           |  0.99967 |  0.54581 | h  |  8, 7, 0 |||
 33 |          |           |  0.99954 | -0.88835 | h  |  8, 8, 0 |||
 34 |          |           |  0.99974 |  0.29568 | h  |  7,10, 0 |||
 35 |          |           |  0.99975 |  -1.0207 | h  |  7,11, 0 |||
 36 |          |           |  0.99838 |  0.96968 | h  |  7,12, 0 |||
 37 |          |           |        1 |  -0.9589 | h  |  7,14, 0 |||
 38 |          |           | 0.00027569 |  0.38393 | h  |  7,15, 0 |||
 39 |          |           | 4.7045e-12 |   1.1199 | h  |  7,16, 0 |||
 40 |          |           | 0.016364 |  0.69112 | h  |  7,17, 0 |||
 41 |          |           | 4.5959e-05 | -0.067856 | h  |  7,19, 0 |||
 42 |          |           |  0.98528 |  0.60132 | h  |  7,20, 0 |||
 43 |          |           |  0.89032 |  0.16563 | h  |  7,22, 0 |||
 44 |          |           |  0.79663 | -0.82542 | h  |  7,23, 0 |||
 45 |          |           | 0.004067 |  0.51011 | h  |  7,24, 0 |||
 46 |          |           |  0.25303 |   1.1088 | h  |  7,26, 0 |||
 47 |          |           |  0.79677 |   2.0871 | h  |  7,27, 0 |||
 48 |          |           |  0.84295 | -0.36443 | h  |  7,28, 0 |||
 49 |          |           |  0.29592 |  0.81501 | h  |  7,29, 0 |||
 50 |          |           | 0.023175 |  -1.2591 | h  |  7,30, 0 |||
 51 |          |           |  0.98905 |  0.45891 | h  | 13,12, 0 |||
 52 |          |           | 0.088428 |  -0.1291 | h  | 13,13, 0 |||
 53 |          |           |  0.97199 |  0.52114 | h  | 13,14, 0 |||
 54 |          |           |  0.35121 |  0.30066 | h  | 13,15, 0 |||
 55 |          |           |  0.79232 | -0.022015 | h  | 13,16, 0 |||
 56 |          |           |  0.95165 |   0.3211 | h  | 13,17, 0 |||
 57 |          |           | 0.068368 | -0.30051 | h  | 13,18, 0 |||
 58 |          |           |  0.98033 |   0.1717 | h  | 13,19, 0 |||
 59 |          |           |  0.99929 | 0.085717 | o  | 20,15, 0 |||
----|----------|----------|----------|----------|----|----------|----------|----------|-------


connection definition section :

target | site | source:weight
-------|------|------------------------------------------------------------------------------------------------------------
    28 |      |   1: 0.37069,   2:-0.31961,   3:-0.083632,   4:-0.41009,   5:  1.4837
    29 |      |   1:  0.7503,   2:-0.067171,   3: 0.64566,   4:-0.026822,   5:-0.30977
    30 |      |   1:0.017365,   2:  0.3643,   3: 0.83364,   4:-0.046865,   5:-0.53554
    31 |      |   1:-0.36498,   2: 0.97786,   6:-0.84757,   7: 0.11987,   8: 0.24559
    32 |      |   1: 0.71498,   2:0.061502,   6:-0.66535,   7:-0.11597,   8:-0.066584
    33 |      |   1: 0.50703,   2:-0.72375,   6:-0.79631,   7:-0.18481,   8:-0.26157
    34 |      |   1: 0.97085,   9:-0.80426,  10: 0.23762,  11: 0.61158
    35 |      |   1:-0.56664,   9:-0.30286,  10:  -1.075,  11:  1.0082
    36 |      |   1:-0.045198,   9: 0.79351,  10:-0.64108,  11:   1.239
    37 |      |   1: 0.38792,  12: 0.90973,  13:-0.49057,  14: 0.94754,  15: 0.88447,  16: 0.27841,  17: 0.17175,  18:-0.64775
    38 |      |   1:-0.72062,  12:-0.62283,  13:-0.36351,  14:-0.55407,  15:-0.0013814,  16:-0.30669,  17:-0.28849,  18: 0.12782
    39 |      |   1:-0.72716,  12:-0.40989,  13:-0.96391,  14: -0.6838,  15: 0.22211,  16: -1.3606,  17: -1.3368,  18: 0.63831
    40 |      |   1:-0.70623,  12:-0.51231,  13: -1.2883,  14: -1.2971,  15: 0.51251,  16:-0.10979,  17:-0.48419,  18: 0.57855
    41 |      |   1: 0.68848,  19:  1.9963
    42 |      |   1: 0.89108,  19:-0.72491
    43 |      |   1:-0.63273,  20: 0.32021,  21:-0.70492
    44 |      |   1: 0.90577,  20: 0.36378,  21:-0.75811
    45 |      |   1:  0.8784,  20: -0.9981,  21:-0.15631
    46 |      |   1:-0.71684,  22: 0.39063,  23:-0.0020903,  24: 0.23996,  25: 0.66037,  26: 0.51458,  27: 0.36428
    47 |      |   1: 0.20353,  22: -1.0078,  23: -1.5316,  24:-0.69921,  25: -1.3377,  26: 0.16714,  27: 0.12034
    48 |      |   1: 0.61748,  22:-0.19955,  23:-0.29427,  24:  1.1938,  25: 0.90622,  26:-0.26019,  27:-0.39206
    49 |      |   1: 0.96061,  22: 0.47955,  23:  0.6653,  24: 0.80494,  25: 0.70376,  26:-0.28939,  27: 0.44181
    50 |      |   1:  0.9708,  22: -0.5899,  23: 0.85758,  24: 0.86384,  25:  1.0746,  26: 0.51501,  27: 0.42871
    51 |      |  28: -1.0795,  29: 0.88322,  30:  1.3102,  31:  1.7293,  32: 0.56398,  33: 0.36277,  34: -0.4916,  35: 0.17871, 
                 36:-0.52959,  37:  0.6055,  38:-0.74846,  39: -1.6467,  40:-0.13601,  41:-0.16367,  42: 0.82576,  43: 0.11908, 
                 44: 0.44319,  45:0.079171,  46: 0.31074,  47:  -2.078,  48:  1.8122,  49:-0.31099,  50:  1.3764
    52 |      |  28:-0.21063,  29: -1.3574,  30:-0.15293,  31:0.065101,  32:-0.35418,  33: -1.0869,  34:-0.23342,  35:-0.76722, 
                 36: 0.81809,  37: -1.1981,  38: 0.54919,  39: 0.15886,  40:-0.35162,  41:  0.9388,  42: 0.34595,  43: 0.14994, 
                 44:-0.77617,  45:  1.0458,  46: 0.15832,  47:  1.7003,  48:0.042427,  49: -0.2794,  50: -1.1198
    53 |      |  28:-0.20059,  29: 0.94713,  30: 0.92948,  31:-0.38497,  32:  1.0487,  33:-0.14929,  34:-0.69991,  35:  1.2053, 
                 36:-0.099127,  37: 0.54524,  38: 0.59087,  39: 0.55708,  40: 0.53857,  41:-0.53064,  42: 0.72669,  43: 0.54531, 
                 44:-0.34224,  45: 0.19959,  46:-0.52796,  47:-0.42386,  48: 0.31819,  49: 0.84643,  50:-0.39603
    54 |      |  28:  1.0814,  29:0.027982,  30: -0.7691,  31:-0.87044,  32:-0.74213,  33:-0.11668,  34: 0.71617,  35: 0.32424, 
                 36: 0.60014,  37: 0.09276,  38: 0.90095,  39: 0.80467,  40:-0.48012,  41:  1.2454,  42:0.056814,  43:-0.19196, 
                 44: -0.2416,  45:-0.07261,  46:-0.88546,  47: 0.96823,  48:-0.89614,  49: -1.3062,  50: -2.1843
    55 |      |  28: 0.87693,  29: -1.0625,  30:-0.98517,  31:-0.74758,  32: 0.44927,  33:-0.82773,  34: 0.75654,  35:0.030249, 
                 36:  1.0464,  37:-0.52058,  38:  1.0502,  39:-0.0074827,  40: -0.6368,  41:  1.0907,  42:-0.80751,  43: 0.74505, 
                 44: 0.57409,  45:-0.82405,  46:-0.016538,  47:  1.1448,  48: 0.83008,  49:-0.83115,  50:-0.24879
    56 |      |  28: -1.2069,  29: 0.72483,  30: 0.86586,  31:  1.5987,  32:  1.1176,  33:  1.2752,  34:-0.0049705,  35: 0.19937, 
                 36: 0.38967,  37: 0.91114,  38: 0.39271,  39:-0.47845,  40: 0.21161,  41:-0.097787,  42: -0.9178,  43: 0.63132, 
                 44:-0.80482,  45: -1.2767,  46:-0.092232,  47: -2.3114,  48:-0.35346,  49: 0.21904,  50: 0.22029
    57 |      |  28: 0.50998,  29:-0.31576,  30:0.050925,  31:-0.96102,  32:-0.056917,  33: -1.0838,  34: 0.68917,  35:-0.70663, 
                 36:   1.175,  37:-0.35468,  38:-0.57082,  39:  1.5554,  40: 0.39749,  41: 0.54186,  42: 0.41581,  43:-0.43726, 
                 44:-0.56623,  45: 0.43441,  46: 0.56289,  47: 0.70481,  48:  -1.031,  49:  -1.303,  50:  -1.834
    58 |      |  28: -1.2116,  29:-0.31875,  30:-0.0043266,  31:-0.21014,  32: 0.43131,  33: 0.27077,  34: 0.92431,  35:  1.0398, 
                 36: 0.73152,  37:  0.7272,  38:-0.44763,  39:-0.14166,  40: 0.76503,  41: -1.1834,  42: 0.32578,  43:  0.7412, 
                 44: 0.42878,  45: 0.29589,  46: 0.66157,  47: -1.5328,  48:-0.047991,  49:-0.094728,  50: 0.39716
    59 |      |  51:  4.1329,  52: -2.0938,  53: 0.84484,  54: -3.0026,  55: -1.4495,  56:  3.1204,  57: -2.6365,  58:  1.8939
-------|------|----------------------------------------------------------------------------------------------------------------
